digraph Tree {
node [shape=box, style="filled, rounded", color="black", fontname=helvetica] ;
edge [fontname=helvetica] ;
0 [label="st_slope <= 0.75\ngini = 0.5\nsamples = 100.0%\nvalue = [0.47, 0.53]\nclass = disease", fillcolor="#399de51e"] ;
1 [label="max_heart_rate_achieved <= 0.55\n0.44\n51.7%\n[0.67, 0.33]\ndisease", fillcolor="#e581397f"] ;
0 -> 1 [labeldistance=2.5, labelangle=45, headlabel="True"] ;
2 [label="st_depression <= 0.19\n0.29\n28.5%\n[0.82, 0.18]\ndisease", fillcolor="#e58139c8"] ;
1 -> 2 ;
3 [label="age <= 0.39\n0.47\n7.3%\n[0.38, 0.62]\ndisease", fillcolor="#399de566"] ;
2 -> 3 ;
4 [label="0.0\n1.3%\n[0.0, 1.0]\ndisease", fillcolor="#399de5ff"] ;
3 -> 4 ;
5 [label="gender <= 0.5\n0.5\n6.0%\n[0.5, 0.5]\ndisease", fillcolor="#e5813900"] ;
3 -> 5 ;
6 [label="0.44\n3.3%\n[0.33, 0.67]\ndisease", fillcolor="#399de57f"] ;
5 -> 6 ;
7 [label="0.44\n2.6%\n[0.67, 0.33]\ndisease", fillcolor="#e581397f"] ;
5 -> 7 ;
8 [label="gender <= 0.5\n0.04\n21.2%\n[0.98, 0.02]\ndisease", fillcolor="#e58139f9"] ;
2 -> 8 ;
9 [label="age <= 0.61\n0.28\n3.3%\n[0.83, 0.17]\ndisease", fillcolor="#e58139cc"] ;
8 -> 9 ;
10 [label="0.0\n2.0%\n[1.0, 0.0]\ndisease", fillcolor="#e58139ff"] ;
9 -> 10 ;
11 [label="0.5\n1.3%\n[0.5, 0.5]\ndisease", fillcolor="#e5813900"] ;
9 -> 11 ;
12 [label="0.0\n17.9%\n[1.0, 0.0]\ndisease", fillcolor="#e58139ff"] ;
8 -> 12 ;
13 [label="exercise_induced_angina <= 0.5\n0.5\n23.2%\n[0.47, 0.53]\ndisease", fillcolor="#399de51d"] ;
1 -> 13 ;
14 [label="max_heart_rate_achieved <= 0.64\n0.46\n15.2%\n[0.35, 0.65]\ndisease", fillcolor="#399de575"] ;
13 -> 14 ;
15 [label="resting_blood_pressure <= 0.55\n0.24\n7.9%\n[0.14, 0.86]\ndisease", fillcolor="#399de5d4"] ;
14 -> 15 ;
16 [label="0.11\n6.0%\n[0.06, 0.94]\ndisease", fillcolor="#399de5ef"] ;
15 -> 16 ;
17 [label="0.5\n2.0%\n[0.5, 0.5]\ndisease", fillcolor="#e5813900"] ;
15 -> 17 ;
18 [label="age <= 0.34\n0.47\n7.3%\n[0.62, 0.38]\ndisease", fillcolor="#e5813966"] ;
14 -> 18 ;
19 [label="0.0\n1.3%\n[0.0, 1.0]\ndisease", fillcolor="#399de5ff"] ;
18 -> 19 ;
20 [label="0.41\n6.0%\n[0.71, 0.29]\ndisease", fillcolor="#e5813999"] ;
18 -> 20 ;
21 [label="st_depression <= 0.01\n0.28\n7.9%\n[0.83, 0.17]\ndisease", fillcolor="#e58139cc"] ;
13 -> 21 ;
22 [label="0.5\n1.3%\n[0.5, 0.5]\ndisease", fillcolor="#e5813900"] ;
21 -> 22 ;
23 [label="st_depression <= 0.4\n0.18\n6.6%\n[0.9, 0.1]\ndisease", fillcolor="#e58139e3"] ;
21 -> 23 ;
24 [label="0.0\n4.6%\n[1.0, 0.0]\ndisease", fillcolor="#e58139ff"] ;
23 -> 24 ;
25 [label="0.44\n2.0%\n[0.67, 0.33]\ndisease", fillcolor="#e581397f"] ;
23 -> 25 ;
26 [label="gender <= 0.5\n0.4\n48.3%\n[0.28, 0.72]\ndisease", fillcolor="#399de59d"] ;
0 -> 26 [labeldistance=2.5, labelangle=-45, headlabel="False"] ;
27 [label="num_major_vessels <= 0.38\n0.05\n15.9%\n[0.03, 0.97]\ndisease", fillcolor="#399de5f8"] ;
26 -> 27 ;
28 [label="0.0\n13.2%\n[0.0, 1.0]\ndisease", fillcolor="#399de5ff"] ;
27 -> 28 ;
29 [label="0.32\n2.6%\n[0.2, 0.8]\ndisease", fillcolor="#399de5bf"] ;
27 -> 29 ;
30 [label="resting_blood_pressure <= 0.59\n0.48\n32.5%\n[0.4, 0.6]\ndisease", fillcolor="#399de553"] ;
26 -> 30 ;
31 [label="num_major_vessels <= 0.12\n0.45\n29.8%\n[0.35, 0.65]\ndisease", fillcolor="#399de577"] ;
30 -> 31 ;
32 [label="exercise_induced_angina <= 0.5\n0.32\n17.9%\n[0.2, 0.8]\ndisease", fillcolor="#399de5bf"] ;
31 -> 32 ;
33 [label="0.28\n14.6%\n[0.17, 0.83]\ndisease", fillcolor="#399de5ca"] ;
32 -> 33 ;
34 [label="0.48\n3.3%\n[0.4, 0.6]\ndisease", fillcolor="#399de555"] ;
32 -> 34 ;
35 [label="cholesterol <= 0.28\n0.49\n11.9%\n[0.55, 0.45]\ndisease", fillcolor="#e5813930"] ;
31 -> 35 ;
36 [label="0.0\n2.6%\n[1.0, 0.0]\ndisease", fillcolor="#e58139ff"] ;
35 -> 36 ;
37 [label="0.49\n9.3%\n[0.43, 0.57]\ndisease", fillcolor="#399de53b"] ;
35 -> 37 ;
38 [label="age <= 0.55\n0.22\n2.6%\n[0.88, 0.12]\ndisease", fillcolor="#e58139db"] ;
30 -> 38 ;
39 [label="0.44\n1.3%\n[0.67, 0.33]\ndisease", fillcolor="#e581397f"] ;
38 -> 39 ;
40 [label="0.0\n1.3%\n[1.0, 0.0]\ndisease", fillcolor="#e58139ff"] ;
38 -> 40 ;
}